34 128
34 0.053129002 0.072917864 0.23667398 -0.018516397 -0.19697365 -0.2312842 0.018724607 0.1731724 0.09329289 -0.05012805 0.29905847 0.07128615 0.0815292 -0.016558057 -0.022517659 -0.027352484 0.017314179 0.0881027 -0.12006344 -0.14897716 0.10230648 0.033470586 0.10470604 -0.077400014 -0.015974287 0.040514402 -0.07009105 0.016810657 0.0686892 0.006871547 -0.21082088 0.13045858 0.04433443 -0.11902411 -0.08368383 0.021911895 0.20236573 0.029708859 0.049589362 -0.20572744 -0.10377945 0.18443055 -0.092855535 -0.15102702 0.0015054948 -0.0748032 -0.17318046 -0.06686767 0.11441369 0.15877788 0.1340939 -0.041496214 -0.09585645 0.087138474 0.10245196 -0.033892296 0.12876786 -0.04490791 -0.17979918 0.06491259 -0.086723134 -0.005142026 -0.17075817 -0.23040175 0.060769115 0.012062453 0.04739438 0.07178216 0.054859895 -0.049299575 0.031880036 0.1723407 -0.13214958 -0.13978428 0.06722829 0.01764032 0.2215792 -0.0019366296 -0.03763806 0.0032225533 -0.07358487 -0.039905228 0.19561982 0.09621878 -0.013226215 0.014728246 0.108342044 -0.15584725 -0.059183255 0.126106 -0.16321649 0.021802608 -0.03806424 -0.00714219 0.16591956 0.030884327 -0.07210088 -0.14620428 0.15578388 -0.0055665444 -0.22394817 0.0529153 0.14357734 0.025258455 0.12523612 -0.15483251 0.030401621 0.021368047 -0.031767815 -0.055023417 0.100465804 -0.022072544 -0.053351015 0.19629432 0.07238491 0.076508045 -0.035828505 0.10579135 0.055603806 0.09939466 0.0870966 -0.1547357 0.20779394 -0.2702541 0.10987626 0.008288698 -0.11342192 -0.026986497
33 -0.005841589 0.09109467 0.26711747 -0.033010136 -0.16673659 -0.2612894 0.0234546 0.20386401 0.11139432 0.03508381 0.34241268 0.108106904 0.15776373 0.029093007 -0.06151587 -0.08530189 -0.067441486 0.21503852 -0.17685817 -0.06545382 0.15132675 -0.012110298 0.07795589 -0.07722125 -0.015996773 0.029188972 -0.08553176 0.08023115 0.11161425 0.07162011 -0.18444483 0.19896226 0.058272857 -0.06199978 -0.105009496 -0.023274675 0.2287333 0.03354873 0.08841903 -0.14864346 -0.10503534 0.2679494 -0.05203172 -0.19814946 -0.076252915 -0.032318916 -0.18957298 -0.08423921 0.1503144 0.044134457 0.18049048 -0.023577888 -0.16029282 0.09252446 0.05235586 0.041730337 0.08504904 -0.114824 -0.11915297 0.045339372 -0.04331001 -0.037602294 -0.19659981 -0.19018246 0.05027444 0.01969276 0.029301729 0.046089508 0.093693025 0.004261832 -0.051049966 0.13773076 -0.12016259 -0.100211054 0.06624337 -0.019811666 0.20206454 0.058726136 -0.009112612 0.03424851 -0.1358057 -0.022772435 0.19403863 0.015829995 -0.018148914 -0.0019189544 0.08251788 -0.13971956 -0.06262661 0.13099761 -0.1205321 0.022006707 -0.11013296 -0.0057405066 0.11108446 -0.071787484 -0.07539094 -0.16741809 0.15017496 0.030343143 -0.24750417 0.109604634 0.10214589 -0.05443032 0.027610071 -0.027854163 0.00352685 -0.0469457 -0.036488365 -0.0053135706 0.15708464 -0.0042381454 -0.062088937 0.14506215 0.14841783 0.02458705 -0.06242698 0.062727414 0.029512243 0.012490132 0.04426029 -0.13648906 0.17748827 -0.19954611 0.0156134255 0.025959184 -0.15298034 -0.07982514
1 0.11482277 -0.052522942 0.17562239 -0.19585797 0.027588397 -0.08989768 0.07469074 0.035913747 0.03943941 0.055560797 0.15969929 0.028450485 -0.051545747 0.02286959 0.06340927 -0.041591786 -0.028529495 0.18383378 -0.12322178 -0.032587554 0.2364095 0.16886264 0.14566201 -0.07890601 -0.11422806 0.019664757 -0.1102577 0.08170879 0.20567125 0.041900184 -0.29267943 0.045012686 0.00064525346 0.025179107 -0.1550681 -0.025948418 0.22726536 0.021939823 0.16219588 -0.008606121 0.09294446 0.042598464 0.0302748 -0.15616658 -0.059524655 0.07880415 0.032133024 -0.33570436 0.013865206 -0.102004185 0.12434275 0.0052722995 0.06355924 0.122579016 0.15529914 0.10704771 0.106455356 -0.033566356 -0.074112035 -0.08943113 0.14919086 -0.1518199 0.016687024 0.1163613 0.062156573 -0.11403902 0.119876094 0.10614242 -0.09919738 -0.06718087 0.14038163 0.13328739 -0.15469769 0.09259215 -0.0133352345 -0.09749748 -0.08703052 -0.05900785 0.02320373 0.1707284 0.18693268 -0.091765486 -0.007965562 0.16525473 0.124482356 0.09764944 0.14825441 -0.13415869 0.14536276 0.14116202 -0.120548874 -0.022195116 -0.08502486 -0.02886241 0.18327251 0.029214283 -0.19451287 -0.28925732 -0.06698734 -0.09054837 -0.026634788 0.16588263 0.18021967 0.00019371082 -0.05231416 -0.015729781 0.097422324 -0.15798382 0.041781515 -0.059785526 0.047919188 0.08686705 -0.05723595 0.14740932 0.025928166 0.07306935 -0.006020828 0.15493782 0.1364518 0.069755726 -0.04536006 0.02180359 0.007057319 0.1393438 0.005789899 -0.14888541 -0.15419748 0.029109543
32 0.094966315 0.060972344 0.27631 0.097827755 -0.1577573 -0.26633078 0.058029708 0.18890633 0.13179982 -0.037251756 0.32814604 -0.0021152261 0.17803082 -0.032927047 0.0043859114 -0.065214016 -0.15427008 0.07945184 -0.22013362 -0.10335764 0.13182425 0.10912658 0.03724531 -0.018469617 -0.0593905 0.06247434 -0.04178562 0.18761893 0.11633189 0.124621004 -0.18633051 0.13592461 0.04526858 -0.10663368 -0.13404194 -0.11557093 0.20005542 -0.0017995806 0.17449969 -0.07049152 -0.12993613 0.17307396 0.022618754 -0.12059427 -0.0873146 -0.0462756 -0.1223776 -0.044683203 0.16735902 0.037715208 0.18698269 -0.07397483 -0.124357715 0.076958224 -0.017827587 0.024598112 0.16018231 -0.12443704 -0.21900591 0.0756124 -0.011834388 -0.108903274 -0.18015587 -0.16652752 0.09871911 -0.09186309 -0.011922007 0.029812224 0.10716624 0.02092428 0.017967978 0.13095206 -0.19770043 -0.058617033 0.09091012 -0.13077396 0.13101067 0.014412808 0.06883387 0.0856042 -0.0912268 -0.108227804 0.16243054 0.047150653 -0.03894976 0.11099662 0.020521088 -0.029981403 -0.007030973 0.15904666 -0.048559386 0.08235618 -0.0326535 0.095305905 0.058236957 -0.08169904 -0.07255438 -0.19958848 0.060850974 0.029327344 -0.21320868 0.046334807 0.05653005 -0.010783673 -0.10539158 -0.07516571 0.073487505 -0.059012216 -0.048757005 0.044263016 0.1851783 -0.054785058 -0.011507142 0.21041924 0.14065781 0.010564866 -0.10162176 0.0981656 0.041742973 -0.08936596 -0.020546205 -0.13284025 0.15570302 -0.059042837 0.014641359 -0.037776675 -0.11136667 -0.10075184
3 0.04177644 0.00020239652 0.20865683 -0.04173148 -0.118940115 -0.27951416 0.024997385 0.14662659 0.073558 -0.0011758152 0.3201171 -0.0063885297 0.09336456 -0.096787356 0.019370709 -0.08993536 0.025541967 0.13149941 -0.03395018 0.02207161 0.1509604 0.013627183 0.07982474 -0.04166671 -0.09478649 0.12885822 -0.10518133 0.021860177 0.16316949 -0.030818902 -0.27155444 0.1332436 -0.046981398 -0.0014169803 -0.04931287 0.09032504 0.24207292 0.105562374 0.14104557 -0.14198515 0.0331241 0.23470707 -0.042711083 -0.08003125 0.08760986 0.0014194584 -0.1173535 -0.1742635 0.049865317 0.051759273 0.15157382 -0.060635176 0.030506574 0.13033621 0.13220319 0.01055008 0.045491174 -0.047760535 -0.10499342 -0.043371804 0.024381688 -0.07840656 0.003567848 -0.045888387 0.031069199 -0.017972548 0.0685034 0.023207732 0.08708265 -0.07964373 0.012397315 -0.0096091665 -0.14052503 -0.058624595 -0.023846714 0.03437751 0.11292936 0.005171339 -0.022527296 0.1303145 -0.10191767 -0.037451573 0.15085077 0.08335774 0.06914157 -0.031007882 0.17143372 -0.12227376 0.10478317 0.11885645 -0.1493824 -0.07532985 -0.14711191 0.008097283 0.17869557 0.0066092666 -0.1605648 -0.1684453 0.12590201 0.0052263956 -0.20919836 0.07311205 0.13350698 -0.021213062 0.118909776 -0.024387496 0.015913984 -0.109989 -0.011574747 -0.071595125 0.08254228 0.045013588 -0.014179227 0.046607357 0.03956172 0.05300615 0.022661228 0.07685795 0.095338985 0.13233085 0.029196292 -0.07210952 0.03024377 -0.08509536 0.031002302 -0.15721643 -0.09908518 -0.008567455
2 0.07014232 -0.055775393 0.15336259 -0.14162695 0.026890216 -0.038707856 0.019270435 -0.08292469 0.030291272 0.070335135 0.15735139 -0.05506771 -0.00929272 -0.06934981 -0.026176821 -0.07387713 0.10451446 0.13900284 -0.035421655 -0.027097961 0.19166064 0.10169224 0.17281581 -0.077578895 -0.1854847 0.10214103 -0.16005678 -0.0026424483 0.10450435 -0.07220348 -0.27105317 0.12695093 -0.08940735 0.10807434 -0.0990434 0.035189398 0.24947594 0.102696955 0.13816597 -0.057049137 0.10972151 0.06347671 -0.054097924 -0.15785107 -0.002861979 0.0438284 0.04459929 -0.2990145 -0.09941412 0.004444167 0.10289101 -0.0595123 0.06378185 0.17287903 0.11322884 0.0024261186 0.053675868 -0.034374636 -0.15255253 -0.049152583 0.1578901 -0.1287995 0.12483232 0.0707573 0.05526209 -0.11468921 0.077420145 0.053044744 -0.057645135 -0.18130134 0.07787541 0.06738297 -0.16343094 0.05579996 -0.044778556 -0.0461387 0.034132194 -0.07212779 -0.11551221 0.17020091 0.072322994 0.01387324 0.018811774 0.116115846 0.10032996 0.066671744 0.17767656 -0.18404774 0.124787495 0.15708414 -0.21408089 -0.09456257 -0.11308177 -0.057999186 0.23550159 0.023673167 -0.2013932 -0.28805056 -0.019101392 -0.05795377 -0.11064836 0.039302647 0.23009224 0.005561946 0.064643174 -0.14195813 0.000815458 -0.087285325 0.13271877 -0.07419664 -0.047658615 0.04568688 0.07360739 0.110879906 -0.049496207 0.14497277 0.011778252 0.20310006 0.1316285 0.15140967 0.044679288 -0.050208017 -0.003120389 0.08111962 0.052696753 -0.19127557 -0.2005966 0.07704709
4 0.0658291 -0.038478225 0.14697479 0.0015573963 0.049310222 -0.11951411 0.031265758 -0.011698616 0.058385808 0.019593606 0.15357086 -0.17758413 0.065558195 -0.16195443 0.02406712 -0.07180439 0.14632896 0.054594662 0.052972946 0.10313621 0.19173534 0.08824248 0.11024666 -0.0513627 -0.2710535 0.20494127 -0.111649305 0.07392609 0.10606874 -0.09604314 -0.22627582 0.10179033 -0.18155125 0.15328588 -0.13611722 0.06165289 0.27403393 0.13672908 0.22026329 -0.1349483 0.09754515 0.18407573 -0.04115081 -0.096752755 0.10175098 0.022251762 0.08814547 -0.25834653 -0.13234244 0.014039492 0.13924636 -0.122099705 0.10804691 0.22856456 0.13482973 -0.07436941 0.08315275 0.0031122845 -0.21725753 -0.092101544 0.11038704 -0.16507643 0.19060801 0.019098809 0.1152239 -0.12711418 0.021890048 -0.012812033 0.056432687 -0.14713621 0.08190889 -0.01636047 -0.2384667 0.07348537 -0.05010875 -0.03728047 0.09375104 -0.1013291 -0.119474955 0.23975271 -0.0428514 -0.006731024 0.04598261 0.062307566 0.10378305 0.026734833 0.21233664 -0.17400321 0.17979115 0.1481226 -0.19797559 -0.18739228 -0.16366693 -0.016476078 0.22928989 -0.001568227 -0.23340482 -0.2738979 0.0080181565 0.029743798 -0.2138452 -0.022124425 0.18851873 0.0074205846 0.10774996 -0.092043504 -0.071270116 -0.13157567 0.115222715 -0.04360699 -0.058425095 0.02096429 0.08759437 0.053409647 -0.053179983 0.1653008 0.075227305 0.16170624 0.15834749 0.110288195 0.0030164355 -0.07709037 -0.028606778 0.080395125 0.067658186 -0.30534792 -0.12949774 0.090348266
10 -0.0052577453 0.0925263 0.22640571 -0.05145865 -0.16756009 -0.2854042 -0.030597812 0.21016465 0.06792676 -0.011677703 0.29973528 0.05009147 0.09814869 -0.07017345 -0.019467855 -0.0775774 0.033689804 0.13635793 -0.0838394 -0.012922772 0.123508364 -0.050905053 0.08882448 -0.09798413 -0.06655814 0.070965394 -0.11820834 -0.009292398 0.13814525 -0.049453612 -0.2574062 0.2037492 -0.044725705 -0.086949684 -0.035045695 0.105407335 0.25023067 0.12614681 0.06655338 -0.21285404 -0.015430884 0.2532204 -0.055139422 -0.12188831 0.06119394 -0.016226763 -0.16968943 -0.15377834 0.090289705 0.13973062 0.1442844 0.005584189 -0.0063248277 0.09379747 0.13506596 0.0029356626 0.073455974 0.0047021 -0.08700264 -0.021520538 -0.05028118 -0.030172195 -0.06502792 -0.15656129 0.052915853 0.045478746 0.094820954 0.04830524 0.08316833 -0.063991316 -0.009503369 0.060845174 -0.11108212 -0.11053432 0.026119467 0.047988772 0.16997682 -0.013542806 -0.023482695 0.092551894 -0.09325005 -0.056559913 0.19047152 0.08024336 0.054433987 -0.034743212 0.16996615 -0.1151074 0.015132445 0.07221876 -0.1636938 -0.05247415 -0.09440881 -0.0021467272 0.12775837 0.04424437 -0.11598949 -0.1620681 0.16077368 -0.01650591 -0.27542245 0.112712406 0.15487964 0.020683713 0.177024 -0.08540855 0.041585404 -0.098088495 -0.05694422 -0.0787101 0.09202701 0.038401727 -0.04564006 0.10563785 0.072855435 0.043048773 0.016747437 0.11777904 0.115274355 0.16771288 0.06746844 -0.117022745 0.14964558 -0.24580985 0.09105103 -0.07211438 -0.09222799 -0.017564237
16 -0.054925203 0.12551083 0.16515796 -0.04321966 -0.120482914 -0.16226044 -0.048369918 0.1296091 0.09756966 0.041429013 0.24526788 0.09840962 0.10639717 -0.007972692 -0.10686469 -0.037999507 -0.025845427 0.15944177 -0.13962767 -0.08882594 0.08534181 -0.05835294 0.10480603 -0.08524535 -0.030469805 0.03138298 -0.07079519 0.041282974 0.05594404 0.018772747 -0.17661175 0.20187335 0.02475903 -0.10498174 -0.0833662 0.022009334 0.18940933 0.07271428 0.058696877 -0.21118328 -0.116819344 0.23069155 -0.13547993 -0.24115619 -0.04566099 -0.03854458 -0.16409843 -0.110169545 0.063900866 0.1540299 0.16551575 0.014431399 -0.114406325 0.0862218 0.04199744 -0.011169174 0.12318664 -0.04633856 -0.12971462 0.049145836 -0.0864522 0.023117216 -0.13569924 -0.23121881 0.05821048 0.036521986 0.06833337 0.07488507 0.07208719 -0.010382099 -0.049374092 0.1809891 -0.09183671 -0.11392067 0.04860517 -0.008523436 0.21750468 0.05799751 -0.07860282 0.052181404 -0.1024853 -0.030066341 0.19045413 0.032643024 0.013890015 -0.01905484 0.12203537 -0.19014227 -0.10278849 0.09931526 -0.16675872 -0.010608054 -0.06796636 -0.039368175 0.096142374 -0.05070292 -0.07260161 -0.22781712 0.18597004 -0.04103882 -0.30605 0.08556141 0.120297275 0.0021180338 0.12519942 -0.14880836 -0.00013366135 -0.037201293 -0.03266354 -0.035430282 0.112029545 -0.0128635485 -0.05370822 0.21320759 0.10196561 0.04771101 -0.050129812 0.15058847 0.09954348 0.1502799 0.09054647 -0.1878811 0.24985914 -0.26650715 0.10486782 -0.015803248 -0.19519986 -0.06252962
19 -0.022168621 0.099570535 0.21318208 -0.0062333695 -0.13683696 -0.19584553 -0.0048744907 0.17046009 0.07479381 0.026852015 0.28307003 0.06309088 0.12104018 0.022232275 -0.03782815 -0.07684118 -0.0417874 0.15854491 -0.18493181 -0.054950356 0.10646148 -0.04300543 0.039979514 -0.049947508 -0.06298364 0.022257466 -0.081796855 0.06580296 0.055693716 0.044231933 -0.16855933 0.20160876 0.042864412 -0.080817774 -0.119263135 -0.00811696 0.25871512 0.045728184 0.0863972 -0.18545632 -0.11515916 0.28148052 -0.05814119 -0.20458521 -0.10499377 -0.07155365 -0.16664979 -0.10274432 0.14812896 0.07906322 0.23181951 -0.035587594 -0.11646299 0.09117851 0.054381225 0.030313058 0.11793665 -0.08969817 -0.16023314 0.08447607 -0.059987027 -0.03359198 -0.19245529 -0.22152406 0.063675836 0.04324565 0.027025688 0.04218786 0.080056936 -0.024667436 -0.012916149 0.14446409 -0.12856345 -0.11709083 0.09464677 -0.015859012 0.23186576 -0.014977769 -0.019086188 0.053966086 -0.11141297 -0.052300774 0.21275872 0.0012672555 -0.060349505 -0.0031834436 0.094977245 -0.123126715 -0.08641406 0.09446999 -0.11012372 0.0269065 -0.07033103 -0.0036818432 0.117161825 -0.044409804 -0.14459407 -0.23737845 0.14919198 -0.00032954628 -0.29916376 0.09516152 0.13822174 -0.020147339 0.09537297 -0.07372903 0.01605947 -0.05303813 -0.0008884702 -0.009019375 0.16095176 0.002887204 -0.014469057 0.18035877 0.1456877 0.029584462 -0.073223494 0.11709206 0.07326965 0.06288895 0.080143526 -0.17841339 0.22877608 -0.23353203 0.07039453 0.023584656 -0.14904168 -0.054366898
8 0.10906772 -0.052814938 0.16982326 -0.06811051 -0.019303497 -0.16404162 0.07468906 -0.011395472 0.073059216 0.03312365 0.21708675 -0.105262086 0.05060558 -0.14634307 0.0329613 -0.032537844 0.1027318 0.095678076 0.040688127 0.064294286 0.18290086 0.13265371 0.12467411 -0.046895552 -0.19025388 0.15360455 -0.13466284 0.019031718 0.13741425 -0.057883292 -0.28596783 0.07283182 -0.10868605 0.08239365 -0.08033216 0.07675225 0.2503435 0.10447392 0.18266396 -0.09165828 0.12250231 0.12705764 -0.030188235 -0.0766187 0.09746322 0.067507386 0.012560372 -0.2723134 -0.104253 0.00574082 0.12791516 -0.06652331 0.11690952 0.16794318 0.14130221 -0.024551233 0.062028173 0.014328214 -0.15011749 -0.10198139 0.09124352 -0.14360772 0.16221973 0.074741736 0.052189752 -0.13258989 0.063859135 0.0026607204 0.01828671 -0.13337772 0.07190039 -0.007804974 -0.19756486 0.07794403 -0.08230157 -0.028636057 0.027903384 -0.051348574 -0.09159384 0.19813254 0.025642693 0.0016112672 0.04165509 0.13295895 0.14846645 0.041751802 0.20503236 -0.15781379 0.19594197 0.17030515 -0.21148399 -0.13832799 -0.15712018 -0.008076292 0.2426334 0.027098322 -0.19801211 -0.2228755 0.0291643 -0.029107664 -0.129979 0.017169446 0.19565125 0.0067344923 0.08070703 -0.08373948 0.012686104 -0.0947021 0.06537173 -0.09202838 -0.005501621 0.05692911 0.018206092 0.058605697 -0.0536509 0.12542914 0.080776 0.12532155 0.118466854 0.15969993 0.010699494 -0.039583787 -0.056794252 0.082413696 0.057244666 -0.29149592 -0.14097129 0.05978864
9 0.081822 0.024510507 0.2911208 -0.06828109 -0.15096533 -0.28292933 0.03789764 0.18995239 0.11424467 -0.0125155635 0.3324609 0.054587536 0.107496895 0.0042162505 -0.0010489293 -0.06269114 -0.077169314 0.1707028 -0.14524092 -0.044712856 0.19591998 0.05877877 0.080829866 -0.08044605 -0.06324965 0.041975185 -0.106943 0.06970932 0.15354636 0.06446907 -0.25362414 0.1312188 0.039893914 -0.050561048 -0.072465956 0.00464296 0.2277244 0.045160394 0.10860826 -0.10609808 -0.049918186 0.19489141 -0.0058551696 -0.121924184 -0.01614535 -0.011634519 -0.11339257 -0.15186979 0.12226897 0.025309792 0.14301217 -0.008417251 -0.074170716 0.08052344 0.10356375 0.055447187 0.0999924 -0.058236536 -0.108706415 -0.0074730497 -0.00075131474 -0.08423588 -0.114946246 -0.107308485 0.053510927 -0.010889934 0.056501083 0.048847657 0.057536095 -0.009228863 0.024918487 0.08708391 -0.13237554 -0.056191795 0.04483503 -0.033296216 0.10632219 0.0011509567 0.033078846 0.06416819 -0.035854105 -0.063366614 0.1554835 0.08667627 0.026668083 0.033014372 0.09079564 -0.10366323 0.018203575 0.1200344 -0.10495579 0.023442883 -0.09585682 0.02219781 0.13147308 0.0039366884 -0.11988483 -0.16600005 0.07870741 -0.008477535 -0.1783993 0.11795758 0.110150136 -0.029226566 0.0022237382 -0.004973294 0.048695855 -0.08350874 -0.05207447 -0.03756391 0.11319695 0.028913146 -0.066740796 0.12076046 0.09321084 0.023551192 -0.029627234 0.06417238 0.049565516 0.03889596 0.009396642 -0.07249003 0.09013046 -0.10137935 0.02496495 -0.027494363 -0.107420765 -0.020053936
14 0.06112631 -0.016198352 0.10501465 0.0015545493 -0.019975873 -0.12258094 0.019280836 -0.0038221146 0.06841706 0.028258067 0.18123403 -0.08548494 0.06618257 -0.13729395 -0.016056212 -0.040570766 0.07464407 0.06464838 0.0056212214 0.005294966 0.1255958 0.07414559 0.12327909 -0.030817145 -0.14449105 0.14292154 -0.09383039 0.03674805 0.10030823 -0.055132728 -0.22140576 0.11010086 -0.08669717 0.040943176 -0.09746422 0.041029356 0.21505769 0.10733038 0.17408188 -0.11348513 0.04954631 0.13248666 -0.06838503 -0.12595329 0.063764654 0.020873439 -0.024337225 -0.19487335 -0.07965472 0.07966897 0.1262244 -0.093112804 0.062699914 0.16901653 0.07492264 -0.049547855 0.0832477 -0.034682505 -0.18764618 -0.04471062 0.0665058 -0.094765626 0.1023451 -0.018701918 0.06842879 -0.12093265 0.052124582 0.021525513 0.04759288 -0.11906738 0.033784546 0.046625394 -0.17599481 0.022368975 -0.0564625 -0.039917495 0.08263454 -0.0043675452 -0.110250056 0.1861973 -0.044252105 -0.01384647 0.059328765 0.08626082 0.109385334 0.0402886 0.18490408 -0.16239029 0.12634766 0.17371978 -0.19296019 -0.115177214 -0.12018875 -0.013500995 0.19184166 -0.018290648 -0.14922811 -0.24703896 0.06838187 -0.017267235 -0.18868385 -0.008621613 0.16090205 -0.0003110359 0.079151034 -0.15502912 -0.007322743 -0.060991548 0.05871802 -0.055838715 0.008299926 0.00501982 0.046479717 0.119411886 -0.02627268 0.11482635 0.02581815 0.172643 0.1340064 0.14750662 0.023944434 -0.103766404 0.019264633 0.0108452 0.07480498 -0.244507 -0.16641848 0.018934665
25 0.123005144 0.092047006 0.22578634 0.22667198 -0.13881685 -0.18867993 0.09066129 0.2245362 0.071669206 -0.09105215 0.23343088 -0.07138934 0.21630323 -0.09016642 0.11034312 -0.14050207 -0.10415934 -0.07217589 -0.29342157 -0.1732769 0.021024287 0.14521155 -0.014242725 -0.0069089187 -0.061449707 0.038594313 0.0038276138 0.23176844 0.1739921 0.08509328 -0.08396189 0.21631773 -0.054834682 -0.15433036 -0.25916877 -0.18486743 0.28184038 0.058281317 0.23484774 -0.06833479 -0.0599232 0.11411637 0.18298797 -0.10971021 -0.11837162 -0.079465576 -0.12810624 -0.012727907 0.30549988 0.07345306 0.20202047 -0.15973204 -0.072813846 0.097447686 -0.046228617 0.025110297 0.19102561 -0.14945781 -0.30359426 0.08648868 0.06830154 -0.20088182 -0.2701424 -0.17655379 0.22386809 -0.16187535 -0.05342405 0.000119839046 0.0788412 -0.07876157 0.079849556 0.1689995 -0.26549587 -0.028511003 0.19176526 -0.20450431 0.1796922 -0.06699921 0.17248204 0.2027954 -0.089521445 -0.20492025 0.07749388 0.023527429 -0.0916295 0.2585886 0.026613023 0.10991592 0.05880203 0.18131599 -0.01785058 0.12360771 0.07430023 0.14589125 -0.0202199 -0.0462494 -0.05325729 -0.24046968 -0.04463826 0.106185906 -0.23574433 0.019030679 0.1141701 0.047296654 -0.14036633 -0.18034725 0.12185346 -0.095992625 0.006226107 0.14485602 0.2450721 -0.05989424 0.1125791 0.30551022 0.19031721 0.026347565 -0.19123435 0.21521398 0.10054064 -0.21307567 -0.03253396 -0.17023769 0.23800513 -0.08234675 0.0194176 -0.014953644 -0.035081804 -0.15919982
30 0.038040437 0.122426726 0.29384372 0.014023907 -0.10942408 -0.26308903 0.013013374 0.18612503 0.10808291 -0.020713402 0.13007794 0.00015583105 0.07175561 -0.023298493 -0.0007305052 0.055733573 -0.014951506 0.115898654 -0.13903645 0.045232423 0.1409945 0.011762025 0.07248799 -0.038418014 -0.098470464 0.07852139 -0.011100159 0.117082715 -0.013709922 0.028340057 -0.20010854 0.063174956 0.074072905 -0.10233677 -0.15762588 0.005824776 0.22658864 -0.112299845 0.059313748 -0.23490366 -0.108307205 0.31026015 -0.13591215 -0.11694813 -0.1065936 -0.05442749 -0.06858487 -0.14779052 0.0011828656 -0.0053895395 0.3399754 0.06697763 -0.101961575 0.0680648 0.048646808 -0.022191782 0.25515717 0.033662986 -0.15374322 0.07710931 -0.23176722 0.023893137 -0.058879517 -0.18082991 -0.04153237 0.029880969 0.074340425 0.0007406396 0.1276372 0.1788394 0.060389917 0.18840899 -0.18405639 -0.028868143 0.041748937 0.008988234 0.1604815 -0.07288923 -0.06015052 -0.04530832 -0.029458081 -0.016563127 0.3337883 -0.03436493 -0.036788937 -0.053054947 0.054845423 -0.12714556 -0.17606458 0.06326843 -0.11863074 -0.01409161 -0.053337146 -0.007937896 0.08991679 -0.059351962 -0.120512046 -0.21350797 0.18894756 -0.03405595 -0.18144737 0.16645536 0.073488556 0.077235624 0.23132314 -0.054811195 0.03237735 -0.04809929 -0.033610415 -0.0031306278 0.14777988 -0.00335114 -0.22125429 0.1891858 0.10841501 0.052534085 0.07451658 -0.036129087 0.09570484 0.14083391 0.06708685 -0.212201 0.2598629 -0.2255275 0.21892476 -0.08054367 -0.18889491 -0.008508809
6 0.24332516 -0.07865381 0.067754544 -0.16038255 -0.048790243 -0.035499994 0.124837644 -0.14028445 0.2502711 -0.030291377 0.224774 0.036404487 -0.047104765 -0.059062794 -0.07800947 0.2290782 -0.32286766 0.048840683 -0.017605232 -0.22846818 0.27526852 0.3720177 0.28993982 -0.04424083 -0.037401505 0.15113622 -0.005706701 0.16156556 0.33698532 0.25646755 -0.45423958 -0.11964542 0.09528168 -0.16882686 -0.10119279 -0.07919645 0.056172643 0.0746336 0.29182935 -0.059377577 -0.03967494 -0.1453592 -0.17243683 -0.26320827 0.16546664 0.13149312 -0.022926824 -0.41051778 -0.22894937 0.04554411 0.018994814 -0.03609178 0.0054954593 0.1707828 0.020167273 -0.04198676 0.30262247 -0.014846885 -0.23027022 -0.25674808 0.015998825 -0.14290205 0.124978535 0.043444917 -0.029011337 -0.25432402 0.13522057 0.17386803 -0.1309249 0.06010254 0.10678311 0.21510051 -0.17047843 0.25761914 -0.20674758 -0.14915673 -0.29765373 0.21967196 -0.006837237 0.14313011 0.2125564 -0.11177086 -0.07843301 0.31647548 0.32122916 0.1098001 0.10088606 -0.3044956 0.25053787 0.27735138 -0.2338941 0.00938983 -0.04369947 0.0013550909 0.16279916 -0.06683321 0.050306495 -0.1487976 0.0032728682 -0.20719276 0.028161505 0.10306679 -0.049995713 -0.012962817 -0.23034307 -0.17954998 0.197853 -0.026977308 -0.2121511 -0.14176777 0.05562155 -0.021320714 -0.24041101 0.28440395 0.02032505 0.07510741 0.058971062 0.2126571 0.14244618 0.19343683 -0.02035345 0.009875966 -0.0838474 0.32496572 0.032947436 -0.42122936 -0.31714225 -0.096009254
11 0.1747734 -0.0404096 0.2415905 -0.20422103 0.014947274 -0.13390112 0.10619297 0.0736232 0.08305668 0.039007872 0.17622747 0.012432063 -0.027412852 0.036596138 0.096299954 -0.042292427 -0.10244965 0.18628554 -0.13218392 -0.0425432 0.27241236 0.22244366 0.16496484 -0.07416793 -0.12183313 0.034555577 -0.077518634 0.14299099 0.27836564 0.10335697 -0.33126706 0.028251488 -0.0029708722 0.010584509 -0.17385697 -0.07229384 0.19401562 0.031419143 0.18487923 0.015071207 0.07185189 0.020792592 0.046952028 -0.13994843 -0.03269422 0.10447039 0.039427683 -0.35841814 0.025869606 -0.12361775 0.07682368 0.00981655 0.06665976 0.12030219 0.13153926 0.13832524 0.102954105 -0.005433848 -0.07839915 -0.12578963 0.1472095 -0.16422223 0.03000461 0.15035026 0.08433441 -0.14532417 0.096216075 0.0844648 -0.095152244 -0.051054653 0.15064216 0.1358228 -0.1731285 0.1299357 -0.021826332 -0.12944686 -0.1529039 -0.0362034 0.059704036 0.18828924 0.2196794 -0.11922066 -0.032547925 0.1833735 0.152896 0.1001378 0.12662663 -0.1301472 0.18656623 0.13477948 -0.102347024 -0.02462359 -0.069924094 0.0012771761 0.15363096 0.029502094 -0.15287815 -0.23305173 -0.1003118 -0.08996555 0.017076615 0.15919669 0.12189747 0.010941056 -0.14833012 0.034093007 0.10836419 -0.1765514 -0.0013928685 -0.027925404 0.041830752 0.06697966 -0.07955797 0.14886242 0.004699561 0.059568334 0.010280708 0.1276984 0.14522398 0.028966293 -0.08104481 0.052802227 -0.025117815 0.22243263 -0.027754892 -0.1758272 -0.14293346 0.001012766
26 0.094749786 0.06713374 0.22843646 0.15136385 -0.1261614 -0.19693576 0.08811544 0.17699169 0.0897587 -0.027267298 0.28322697 -0.013838866 0.19187377 -0.03084173 0.052404165 -0.12681045 -0.14838214 0.0385392 -0.2782515 -0.13396068 0.08106436 0.13685134 0.010990642 0.002424588 -0.03759423 0.041554797 -0.021844339 0.22733302 0.16029313 0.116460994 -0.10913815 0.18649697 0.006575106 -0.11178084 -0.2202567 -0.18446127 0.2519079 0.03350123 0.22848038 -0.022954985 -0.09731094 0.14537723 0.12768863 -0.1502585 -0.13545997 -0.03970591 -0.14019161 -0.01775314 0.2555043 0.035792824 0.17659068 -0.11384878 -0.10097345 0.098803304 -0.06471518 0.06955441 0.14021227 -0.18034837 -0.2389617 0.088696636 0.08574152 -0.1710785 -0.25258845 -0.1306332 0.17709194 -0.14820145 -0.039282043 0.01261028 0.0777665 -0.03806342 0.030570239 0.14963351 -0.22490269 -0.03913309 0.14859454 -0.19479102 0.13018169 0.014408584 0.12188756 0.18365663 -0.10106217 -0.16264784 0.09244921 0.028999247 -0.07606305 0.19811003 0.019160965 0.035591923 0.040961362 0.19372743 -0.03962001 0.101938464 -0.009675695 0.11611769 0.010891601 -0.09903733 -0.06631777 -0.24272919 -0.017238064 0.080281295 -0.23746146 0.03517301 0.09202163 -0.003033484 -0.1739856 -0.10157638 0.10463453 -0.099990666 -0.0033000787 0.106322974 0.23163897 -0.049328092 0.07936459 0.2479243 0.1844193 -0.0041352767 -0.18783915 0.16536121 0.06204661 -0.19640245 -0.04686381 -0.14688593 0.18327525 -0.028258644 -0.034955986 -0.016710978 -0.09108815 -0.16126768
20 0.0068351673 0.024789166 0.12470612 -0.07388747 -0.030312734 -0.05671666 -0.0055383225 0.00743221 0.049762025 0.032546982 0.16239595 0.010608827 0.03745714 -0.04354585 -0.028838716 -0.045507085 0.062377762 0.11326338 -0.07104066 -0.084826395 0.10503449 0.049277045 0.11005651 -0.055667963 -0.10224746 0.058937863 -0.07347924 0.02648538 0.04440983 -0.0152787 -0.174569 0.10795665 -0.022233143 0.003096778 -0.13367979 0.009221621 0.21361282 0.064062364 0.11516921 -0.15005091 -0.005038784 0.117882095 -0.09932061 -0.18960118 -0.033661727 -0.018304426 -0.025500959 -0.1983566 -0.023419835 0.060516078 0.13537827 -0.054921642 -0.016491573 0.15489629 0.089708254 -0.028438324 0.1013554 -0.03802347 -0.17836136 0.017258704 0.033028044 -0.05130553 -0.02050551 -0.09607916 0.06904228 -0.054003425 0.04045535 0.06256067 -0.012744197 -0.10460458 0.056470945 0.12991655 -0.14086032 -0.009736696 0.001982977 -0.027981404 0.11708612 -0.029809449 -0.091346234 0.103582874 0.00248445 -0.010734947 0.09000709 0.082193725 0.03936569 0.051618766 0.12937564 -0.201296 0.0066855294 0.12356101 -0.19626401 -0.02680957 -0.06670552 -0.03751373 0.17851815 -0.007238739 -0.13833462 -0.24681063 0.06897074 -0.052653275 -0.19673356 0.028902901 0.17874846 0.010992389 0.07847597 -0.16142839 -0.0052007595 -0.042317096 0.065875955 -0.0534308 0.0363862 0.009318907 0.014171762 0.19776987 0.022041986 0.10468774 -0.035213638 0.16264048 0.09895169 0.1285116 0.060489688 -0.13161345 0.13596265 -0.084302925 0.07868688 -0.12004908 -0.17498456 0.01098003
29 0.067254744 0.08286659 0.2539866 0.061334677 -0.13680375 -0.27884355 0.04807779 0.20337984 0.11571741 -0.025372356 0.29382104 0.009176031 0.17056425 -0.04922869 0.0024013168 -0.06643519 -0.09415335 0.09332902 -0.15829967 -0.040172365 0.12904021 0.06575637 0.06710055 -0.040514253 -0.029765416 0.080030754 -0.042723518 0.1455339 0.15003856 0.071687676 -0.17789628 0.15461755 0.006339981 -0.088389516 -0.12577298 -0.0706446 0.21092877 0.04585156 0.14229527 -0.10982082 -0.07905393 0.20604476 0.018595343 -0.11724531 -0.029985283 -0.009576145 -0.14428155 -0.06194401 0.14971949 0.05629593 0.15367638 -0.027363159 -0.08865245 0.08930778 0.009158753 0.033270393 0.13067344 -0.07924123 -0.15125568 0.015329185 -0.023057519 -0.090199254 -0.1317774 -0.14777522 0.09964282 -0.067403674 0.03332879 0.012051637 0.12408251 0.02858322 -0.010157117 0.11310865 -0.17594555 -0.052021895 0.059751164 -0.07810316 0.13805616 0.04208373 0.032159243 0.11054399 -0.11250997 -0.0863039 0.15471531 0.041806757 0.007953119 0.06995554 0.067030504 -0.054925475 0.0013529201 0.14996028 -0.09870902 0.007026776 -0.08036157 0.056869354 0.051316105 -0.07075284 -0.055914186 -0.16043854 0.08883995 0.04641936 -0.23062426 0.07430716 0.07191107 0.0052421163 -0.019998316 -0.056354754 0.0575185 -0.095017426 -0.063888125 0.022043785 0.16622874 -0.027755473 -0.04805364 0.15084226 0.12650606 0.013186674 -0.059587695 0.07654059 0.063466385 -0.03812092 -0.019503655 -0.1268726 0.15172485 -0.11631873 0.023992082 -0.057808414 -0.11916677 -0.09169341
7 0.25071585 -0.10042624 0.05815148 -0.1399577 -0.018372621 -0.021995671 0.13097036 -0.14592065 0.22327761 -0.056985684 0.19097093 0.024979442 -0.102965005 -0.042631917 -0.05978451 0.25576928 -0.32601193 0.04633377 -0.015504676 -0.20417927 0.28101876 0.35133398 0.2713254 -0.039582204 -0.055873472 0.14823528 0.009934957 0.18781698 0.27770513 0.2625999 -0.45809612 -0.14812271 0.15603223 -0.18485528 -0.1093193 -0.099444464 0.043387406 0.03427197 0.26909503 -0.08806702 -0.06359027 -0.11743448 -0.2231648 -0.25053546 0.15355489 0.09435939 0.0027552722 -0.40881935 -0.25372076 0.06462937 0.07553509 -0.02595334 0.00022455427 0.1739806 0.023532037 -0.0698662 0.35587606 -0.020086499 -0.2481908 -0.22263193 -0.024993187 -0.1280949 0.1471737 0.011071935 -0.103931166 -0.23966123 0.13836926 0.19891255 -0.13235982 0.1392563 0.134275 0.23472199 -0.14839388 0.2524755 -0.20909391 -0.12274202 -0.3068518 0.18874383 -0.031208279 0.0894285 0.23276667 -0.11668362 -0.04416062 0.29591128 0.30083057 0.066649936 0.099554464 -0.30993065 0.21296676 0.26481956 -0.22037183 0.017863944 -0.03600527 -0.00967909 0.15477972 -0.061661087 0.054103877 -0.15695885 0.021945996 -0.23918757 0.054896735 0.11020007 -0.07327622 -0.014301102 -0.19370717 -0.17237067 0.2166342 0.0056386776 -0.22851859 -0.1499511 0.05785134 -0.014605665 -0.2953321 0.28697497 0.01971786 0.06335197 0.09344627 0.17995477 0.14309761 0.23915073 -0.014264877 0.00351049 -0.057694193 0.3170863 0.08935637 -0.4200129 -0.32374302 -0.064391695
23 -0.060880706 0.13623041 0.19660157 -0.0469054 -0.1432554 -0.16909759 -0.044361025 0.1666849 0.060721923 0.03239226 0.2516474 0.12336804 0.106562845 0.03264054 -0.07113955 -0.083786346 -0.026107691 0.16466363 -0.18983197 -0.12815212 0.07557481 -0.06837536 0.06948046 -0.08338352 -0.008910089 -0.014548616 -0.06889546 0.03981664 0.07203977 0.021036416 -0.14737023 0.23290695 0.030832624 -0.11700286 -0.11720219 -0.0041323747 0.21752033 0.06262668 0.045734983 -0.19941252 -0.12257266 0.2324771 -0.07511664 -0.24368432 -0.10610228 -0.06468571 -0.19120681 -0.106089644 0.15656976 0.13394286 0.1784349 -0.011494345 -0.13775375 0.07152106 0.040298406 0.022253908 0.09631489 -0.07908897 -0.13366123 0.080151945 -0.049016923 0.014628956 -0.22573096 -0.25196445 0.08424026 0.04237901 0.048918083 0.084275246 0.065109946 -0.040835653 -0.026225433 0.201689 -0.104134165 -0.14716592 0.10213557 -0.01260904 0.22539856 0.016429847 -0.024005055 0.053294595 -0.09877194 -0.06472394 0.19884631 0.0279641 -0.032770503 0.0037705386 0.092529915 -0.15725857 -0.11738202 0.07386429 -0.13050546 0.037208978 -0.038022008 -0.019032478 0.087965235 -0.03164139 -0.07986343 -0.23937872 0.15072641 -0.021410914 -0.30156672 0.11489465 0.14287281 -0.0036648721 0.093621284 -0.13620761 0.026302485 -0.05032106 -0.0104630105 -0.0050091418 0.14643084 -0.015012862 -0.013868375 0.23388237 0.13668224 0.030034214 -0.10030117 0.17310467 0.09480284 0.07901444 0.091599725 -0.17993794 0.27994075 -0.29496458 0.07653943 0.06508281 -0.17071682 -0.07432018
18 0.11508268 -0.07424175 0.1861245 -0.23890947 0.037391014 -0.006093394 0.08011076 -0.07528266 0.037819445 0.04860797 0.13607897 0.0003302154 -0.06924973 -0.0023551618 0.044517826 -0.021540057 0.110462345 0.165812 -0.067403816 -0.07493569 0.20598623 0.16390355 0.14506446 -0.059836537 -0.17239627 0.053144496 -0.1150118 0.004127221 0.079824075 0.0038665344 -0.2665411 0.009200539 -0.0061096186 0.082952686 -0.17071927 -0.0014774244 0.22167002 0.0015473291 0.12779304 -0.072145015 0.08125584 0.038665663 -0.091907546 -0.16112855 -0.06383784 0.021701766 0.07644149 -0.33347756 -0.093563035 -0.08871358 0.12024372 -0.0500911 0.060199358 0.18029343 0.1664524 0.021243945 0.092925675 -0.006638859 -0.1586771 -0.025879301 0.11969146 -0.10147275 0.03418812 0.07706722 0.03825426 -0.1229448 0.047152843 0.082134195 -0.13495444 -0.1528768 0.1650653 0.121806376 -0.17458904 0.076117486 -0.033076882 -0.044415034 -0.01953381 -0.109792456 -0.0891157 0.1014183 0.17386061 -0.003369125 0.040731475 0.1688114 0.08036523 0.082584485 0.12174279 -0.23820743 0.09832069 0.13918296 -0.22684917 -0.026571667 -0.09455263 -0.04844049 0.26925987 0.03792036 -0.20424208 -0.25283396 -0.034219235 -0.11595056 -0.03282145 0.043302942 0.22053021 0.0071319016 0.031552956 -0.097692646 0.016203865 -0.066846 0.15000528 -0.09038235 -0.010110631 0.07131651 0.004050868 0.17266111 -0.041808385 0.14151049 -0.0087072775 0.12362741 0.0935479 0.12891307 0.039900187 -0.04831201 0.03759432 0.10576157 0.02835161 -0.16495787 -0.17161436 0.07359706
13 0.10938894 -0.05782926 0.13076031 0.018701214 0.033250477 -0.13090321 0.062024344 -0.03109997 0.05235464 0.05470951 0.1626602 -0.18578203 0.086852044 -0.18466298 0.05762519 -0.07859459 0.16007514 0.04064774 0.04302896 0.0764433 0.15978017 0.13635357 0.12343383 -0.033038184 -0.2502545 0.19554858 -0.12096339 0.0641119 0.12233273 -0.11239468 -0.25250122 0.108354345 -0.16853125 0.14729784 -0.133903 0.057142705 0.2600622 0.11810853 0.21912841 -0.07019847 0.14528283 0.12616189 -0.0071683098 -0.074399464 0.08434966 0.052537158 0.0602643 -0.24647938 -0.12032653 0.020509686 0.13336183 -0.120553836 0.1526816 0.19559252 0.10202517 -0.049954098 0.048651434 -0.001788574 -0.20254001 -0.07243592 0.14362451 -0.16742754 0.21384458 0.10168247 0.119193666 -0.17524534 0.034830317 -0.028771626 0.03895605 -0.20462283 0.08159464 -0.014977149 -0.24388407 0.0790741 -0.05674346 -0.077915415 0.07338247 -0.09712369 -0.12459344 0.2714155 -0.011749112 -0.008055635 0.002747207 0.09574873 0.12830096 0.06899696 0.24207601 -0.14733925 0.22843827 0.19400482 -0.2066078 -0.18606725 -0.1379319 -0.0019300018 0.23969537 0.017166154 -0.24083121 -0.32362393 0.0033423295 0.014612364 -0.17306085 -0.041069627 0.24029185 0.013734602 0.0795262 -0.14269146 -0.040782884 -0.10234811 0.15127406 -0.024960902 -0.046432704 0.03633615 0.11920477 0.08202747 -0.09735656 0.18283768 0.06590881 0.19475193 0.17771627 0.13295375 -0.009712653 -0.08473828 -0.055214714 0.12705281 0.071909115 -0.34905672 -0.15704855 0.06941944
28 0.10769232 0.14347263 0.23106128 0.26210606 -0.14371887 -0.13451344 0.0500975 0.17818195 0.045302927 -0.11953524 0.10588875 -0.0881628 0.18081307 -0.1338165 0.10531133 -0.10274024 -0.041459367 -0.1137539 -0.2813457 -0.17901842 0.005476981 0.1342145 0.025817756 -0.0125265615 -0.11248057 0.058132466 0.008932562 0.23428306 0.1113327 0.017212108 -0.044661876 0.22841026 -0.090963006 -0.19258162 -0.3082786 -0.19421396 0.2993872 0.038959123 0.22078855 -0.14200243 -0.056052517 0.13969399 0.12932515 -0.13698657 -0.11825913 -0.099667855 -0.07270793 -0.033621386 0.23687632 0.12822948 0.25391072 -0.15783517 -0.05776107 0.1075544 -0.08175879 -0.006590525 0.22616133 -0.076611586 -0.3473104 0.13299528 0.014080952 -0.1586022 -0.24487275 -0.20343976 0.22988564 -0.1703418 -0.049778126 -0.026388438 0.10722058 -0.08397453 0.1104425 0.20912509 -0.27918336 -0.023897404 0.19303648 -0.1788275 0.22118087 -0.1279544 0.13410656 0.20818047 -0.057225235 -0.1885983 0.112391226 -0.0020717722 -0.117229134 0.26283348 0.022493988 0.085069634 0.0006932604 0.14222148 -0.06954638 0.10203465 0.13134356 0.1211719 -0.038814016 -0.039389096 -0.022656469 -0.24499774 -0.0341479 0.09744172 -0.26292336 0.010259257 0.15294375 0.11319201 -0.0566153 -0.25659677 0.116832905 -0.05884012 0.043445338 0.14581619 0.19676575 -0.09485713 0.097536154 0.35550344 0.1428021 0.046194863 -0.1384646 0.23540205 0.15256526 -0.14620648 -0.013764752 -0.24679236 0.31006095 -0.16759156 0.09515717 -0.052018523 -0.08365992 -0.16982616
17 0.2867612 -0.123881735 0.0295119 -0.09419779 -0.022670945 -0.04700662 0.121127546 -0.130385 0.27539188 -0.08674926 0.23009492 0.0003161544 -0.068997264 -0.10442953 -0.04669098 0.2733427 -0.3385799 -0.0061339205 0.012061742 -0.22089949 0.25775942 0.3729017 0.29245967 -0.049889214 -0.05916609 0.19997752 0.025696294 0.21963482 0.3232625 0.27330667 -0.4753903 -0.14632724 0.13256578 -0.1903804 -0.10853239 -0.09960521 0.048822846 0.058331124 0.324692 -0.10270628 -0.043741427 -0.13336685 -0.21422605 -0.25432035 0.22057064 0.07813011 0.0028392791 -0.4133032 -0.26134688 0.10356734 0.07092599 -0.069701105 0.017465066 0.21673732 0.025712209 -0.10402809 0.3731649 -0.01078796 -0.29278925 -0.23642547 -0.035681468 -0.15122005 0.19214147 0.021554103 -0.085757956 -0.25857615 0.15014881 0.19238785 -0.12007071 0.13138247 0.13279684 0.20701778 -0.16526128 0.26568663 -0.22455731 -0.15273693 -0.29924497 0.20918776 -0.039387662 0.12539765 0.19891304 -0.13396978 -0.06475761 0.30806315 0.343324 0.09507381 0.120392896 -0.2981561 0.2517668 0.3164272 -0.25619844 -0.0046599414 -0.03710238 0.0025249105 0.1532728 -0.062391188 0.079725005 -0.16415343 0.0560154 -0.22510019 0.032521464 0.080585115 -0.08292009 -0.009372492 -0.20554598 -0.2150219 0.21472272 0.01052369 -0.2527008 -0.15189323 0.060742956 -0.0008202747 -0.2956793 0.3226725 0.01775543 0.08880038 0.08864267 0.18666933 0.17678846 0.2548415 -0.0354321 -0.022403086 -0.06946995 0.3417722 0.11640239 -0.50212544 -0.31916684 -0.09210718
24 0.042814124 0.10824302 0.20875908 0.038063496 -0.12968268 -0.16702133 0.026726993 0.14753664 0.08445175 -0.015784414 0.17927457 0.023684552 0.07903109 0.0025775703 -0.00907442 0.01766979 -0.08401424 0.0698474 -0.19655937 -0.108113475 0.08424797 0.05240955 0.049687877 -0.018030759 -0.054724984 0.016664375 -0.008226023 0.13565142 0.03531061 0.09053486 -0.16435903 0.10619457 0.077500924 -0.16077605 -0.16806437 -0.071865834 0.19835682 -0.05100683 0.09844465 -0.18307851 -0.12048493 0.18691003 -0.076192535 -0.17192781 -0.12616341 -0.07659207 -0.11061419 -0.115574025 0.08696598 0.055133652 0.26857954 -0.021906443 -0.11614202 0.061677184 0.0100938 -0.020060139 0.23558216 -0.0469988 -0.20834883 0.092368536 -0.12530862 -0.022060411 -0.16537015 -0.21361455 0.027047243 -0.028895052 0.016714547 0.04378419 0.058325924 0.06700011 0.059270132 0.2132118 -0.1656146 -0.03680972 0.0702573 -0.073977135 0.13442624 -0.034655105 0.003356845 0.018074209 -0.021297716 -0.08017992 0.20651385 0.014033596 -0.036568884 0.05255759 0.038859844 -0.09767928 -0.1029243 0.10939093 -0.09393159 0.06962029 0.020008992 0.029561188 0.059704684 -0.05308251 -0.065566555 -0.21260034 0.11221694 -0.030416846 -0.1817894 0.10769553 0.057401028 0.038540326 0.063404374 -0.12829456 0.07023899 -0.007421414 -0.04465619 0.014128774 0.1755734 -0.035218548 -0.103047654 0.26544207 0.13514367 0.035829592 -0.0335947 0.096844204 0.08472964 0.05253644 0.055895675 -0.19357435 0.24188527 -0.16730763 0.13713768 -0.03681215 -0.16378246 -0.0736845
12 0.13864069 -0.055754546 0.24185279 -0.26643673 0.029461274 -0.10037139 0.09748965 0.026792912 0.052938923 0.08141618 0.19458106 0.024667187 -0.045374792 0.041953005 0.08569099 -0.060614437 0.00047475018 0.21864866 -0.10089002 -0.02431051 0.26742876 0.18874156 0.14153434 -0.07158454 -0.1536905 0.024723174 -0.1189498 0.077053055 0.22666591 0.054061886 -0.3218281 0.040222898 -0.008282357 0.06897938 -0.16373357 -0.017010521 0.23070388 0.031602103 0.1563296 -0.00041742568 0.082354896 0.032015935 0.006528583 -0.15425563 -0.04121939 0.080888264 0.058339726 -0.38565463 -0.014609771 -0.12981075 0.08095412 0.0041539734 0.07622229 0.12737536 0.17444055 0.12744129 0.066762775 -0.001486826 -0.071828075 -0.102491125 0.1597507 -0.144515 0.033864785 0.15092911 0.08254391 -0.11597169 0.09200268 0.08700658 -0.131041 -0.11951903 0.16907032 0.1249308 -0.17249283 0.11022495 -0.013965797 -0.09572876 -0.11205254 -0.084918685 0.023906441 0.1701714 0.21374276 -0.084050395 -0.023188688 0.19365373 0.12447899 0.08721373 0.14063305 -0.18743671 0.1790391 0.12412202 -0.1411986 -0.035026435 -0.08451315 -0.024126153 0.2227119 0.06396522 -0.22078754 -0.27243683 -0.08403191 -0.10479212 -0.007830558 0.14307591 0.17399825 -0.009404881 -0.08768848 0.025199996 0.06730483 -0.17053115 0.06233258 -0.052295286 0.010326566 0.08933077 -0.032292474 0.13666648 -0.020549132 0.08123897 0.007797173 0.14077513 0.12263932 0.075108334 -0.029942162 0.034012407 -0.034615926 0.19970791 -0.036029134 -0.15686132 -0.15552354 0.061375048
5 0.15049504 -0.053338364 0.2046505 -0.2725853 0.030344365 -0.042974632 0.09089337 0.0030565497 0.08276829 0.06186076 0.15490805 0.06352845 -0.061056644 0.06451577 0.052687373 -0.026327763 -0.08760383 0.20898561 -0.1429829 -0.11485841 0.25371256 0.23551151 0.19449799 -0.078985535 -0.093279764 0.011755433 -0.079341926 0.09641168 0.26327425 0.11215451 -0.32774714 0.022792077 0.021905996 0.011636699 -0.1768384 -0.06849487 0.18112278 0.017130962 0.16111866 0.016089067 0.06508675 -0.0424583 -2.271618e-05 -0.2013709 -0.057764083 0.092016116 0.040546224 -0.39725184 -0.0097875735 -0.12628768 0.05462859 0.019277526 0.053568065 0.13305749 0.120385334 0.13206086 0.1039158 -0.007721714 -0.07675796 -0.121293254 0.16222395 -0.14588806 0.016509674 0.15012659 0.071200594 -0.14152034 0.10620965 0.124002956 -0.16584967 -0.08539757 0.16541824 0.17072846 -0.15297242 0.14685513 -0.030512797 -0.1331527 -0.17626233 -0.025583208 0.03549084 0.16229305 0.26307705 -0.104787156 -0.05618903 0.22284152 0.15876582 0.118608125 0.11746739 -0.18983595 0.16655807 0.15126072 -0.13912997 0.009928181 -0.046822567 -0.030562151 0.18497978 0.035623606 -0.14336458 -0.25009876 -0.10328288 -0.14041334 0.042186745 0.15468405 0.1308271 0.006104303 -0.14447325 -0.015870994 0.10254754 -0.14642107 0.022957243 -0.049513962 0.03476492 0.07203476 -0.073049866 0.20570906 -0.0008561491 0.07079148 -0.015475998 0.1568781 0.13856451 0.06533252 -0.04532021 0.037799317 -0.004347382 0.22612746 -0.030911509 -0.16528063 -0.19331105 0.0061679864
15 -0.009657985 0.079273775 0.21259277 -0.056527514 -0.13757582 -0.2045789 0.0037045581 0.16255966 0.09929876 0.041935906 0.30451474 0.09589581 0.102317475 0.05172301 -0.06639097 -0.03960621 -0.098587275 0.19032636 -0.17563589 -0.07666464 0.1404375 -0.022705203 0.061613396 -0.055502035 -0.032115433 0.0029985057 -0.07526816 0.0696262 0.08624233 0.08616181 -0.21483827 0.16452518 0.091271386 -0.1036208 -0.08490351 -0.0077513894 0.2048187 0.023736143 0.077890515 -0.16993338 -0.12634526 0.23942886 -0.1003644 -0.21313263 -0.0881729 -0.044498514 -0.17472863 -0.13258749 0.11817261 0.0682937 0.1939646 0.007258269 -0.13033506 0.07260489 0.049729466 0.030498246 0.12027093 -0.077994354 -0.12612055 0.05958446 -0.07310815 -0.013099015 -0.16382682 -0.19116342 0.020670952 0.03956277 0.044789612 0.07965094 0.061908722 0.02149039 -0.018035851 0.16335663 -0.108068794 -0.09475381 0.06121831 -0.027694164 0.15377001 0.027644696 -0.016483627 0.030002868 -0.07377102 -0.05429702 0.20545672 0.044471208 -0.0034004692 -0.019201178 0.0859016 -0.16030297 -0.07972552 0.09578745 -0.107854195 0.0358324 -0.07274232 -0.0034405822 0.113701805 -0.050062355 -0.10778206 -0.21064527 0.15296787 -0.037751563 -0.24321212 0.12945884 0.07996011 -0.035475172 0.056265764 -0.04558869 0.033117607 -0.041146766 -0.04287321 -0.031717908 0.15258339 0.006762531 -0.0757591 0.17999458 0.13415432 0.0138814775 -0.043349233 0.10284432 0.06308663 0.09436135 0.07150677 -0.1445512 0.1999195 -0.1857721 0.063417815 0.015058727 -0.16807574 -0.05553654
31 -0.0111509785 0.052628003 0.20453425 -0.06195639 -0.09406131 -0.16127016 0.010485529 0.10123158 0.08835731 0.053220738 0.27422705 0.058107056 0.10008075 0.030422531 -0.06507047 -0.057856448 -0.050260294 0.19447426 -0.15376799 -0.04377788 0.1532647 -0.004215559 0.06900214 -0.054438025 -0.082414836 0.024580395 -0.09062439 0.072095074 0.060450185 0.0661519 -0.19094473 0.15400895 0.043434933 -0.018787947 -0.108743474 -0.008297304 0.23042054 0.035951555 0.10363103 -0.13877164 -0.08597284 0.22736149 -0.0747497 -0.20909464 -0.09733057 -0.037781507 -0.10741261 -0.15284736 0.078616336 0.02463445 0.19148299 -0.033036146 -0.11431475 0.10844641 0.053391043 0.029524418 0.096713044 -0.095578395 -0.1452278 0.055670064 -0.016369568 -0.04347742 -0.12517199 -0.1562014 0.03441979 0.01169229 0.019729277 0.047228478 0.043117102 -0.019820338 -0.0031510703 0.11603259 -0.12477477 -0.062076803 0.0484446 -0.039091006 0.15908228 -0.0057117143 -0.037929587 0.0609898 -0.06559626 -0.017887283 0.1727305 0.029555043 -0.017975636 0.0005765328 0.08386223 -0.16431458 -0.046343863 0.098492086 -0.119367756 0.0050286073 -0.09668247 -0.012669101 0.14149866 -0.05621105 -0.14574626 -0.22463755 0.10145099 -0.01701894 -0.23585242 0.09226621 0.11749002 -0.038039777 0.04454745 -0.040545512 0.0018237245 -0.059318412 0.013337524 -0.026197294 0.10788194 0.013131619 -0.01800502 0.15229572 0.112427264 0.03781594 -0.047099225 0.09756913 0.052057542 0.054061655 0.058819935 -0.12615867 0.14553286 -0.11621439 0.038761288 -0.012949322 -0.16988397 -0.026920432
27 0.040995684 0.1412583 0.31594515 0.018024243 -0.14323223 -0.2775577 0.0038363396 0.21917757 0.10502972 -0.014704297 0.17569451 -0.0148056215 0.0607661 -0.0072408365 -0.010866976 0.057480894 -0.009406755 0.122235134 -0.15244374 -0.02592079 0.14360322 0.026453534 0.066475965 -0.037552588 -0.10770675 0.0635565 -0.015221603 0.12493211 -0.050129678 0.07227626 -0.22949578 0.06756657 0.097279266 -0.14085154 -0.15209521 -0.0365306 0.18985304 -0.16013004 0.027139798 -0.28215387 -0.13758269 0.29460314 -0.1953232 -0.113675304 -0.13171892 -0.1121128 -0.09603286 -0.127942 -0.013801053 0.02409262 0.35098585 0.044092704 -0.12536684 0.06439823 0.054039065 -0.076231994 0.28526223 0.04584563 -0.20021296 0.14311506 -0.28088138 0.048851673 -0.069968976 -0.25225914 -0.057591416 0.022965945 0.033691775 0.0152633805 0.13550979 0.18551232 0.06287419 0.22715387 -0.19619344 -0.053837504 0.029050078 -0.020122355 0.16794217 -0.09195706 -0.08885767 -0.087458335 -0.04619883 -0.021566484 0.35130093 -0.018759258 -0.043088958 -0.06579629 0.06068585 -0.13104576 -0.20829904 0.076051936 -0.123160444 0.0009629719 -0.047654726 0.0026704322 0.10690568 -0.06603768 -0.09064311 -0.187342 0.18145446 -0.02541503 -0.16289186 0.13505678 0.034018107 0.088779464 0.23810123 -0.090316355 0.022203296 0.0023225353 -0.0543975 -0.008913329 0.15472825 -0.05158112 -0.22768354 0.23871271 0.07045196 0.09612805 0.07312371 -0.027108215 0.08979989 0.15667552 0.06659922 -0.25194913 0.3014314 -0.2519044 0.25671038 -0.0746852 -0.19435865 0.01416525
22 0.08060809 -0.05751771 0.14856328 -0.20049316 0.03516776 0.008165353 0.059583545 -0.077963784 0.0320437 0.06463352 0.14131379 0.0014235767 -0.04119039 -0.008550216 0.015192117 -0.060747955 0.06670189 0.16807692 -0.07956082 -0.08011348 0.19850309 0.1466837 0.146923 -0.06736922 -0.15132678 0.04201675 -0.124532595 0.029566716 0.13124664 -0.0048898747 -0.23853163 0.06917974 -0.038581334 0.06796093 -0.16274315 -0.013892956 0.22923382 0.050467934 0.14639777 -0.037221003 0.079391494 0.033120617 -0.039794315 -0.19808373 -0.06137113 0.046252515 0.057322387 -0.33221555 -0.052548196 -0.061478365 0.10635593 -0.05964235 0.044150177 0.17096937 0.13453956 0.047169827 0.07158298 -0.047687694 -0.15393887 -0.051455006 0.17486773 -0.13170193 0.021055443 0.073435396 0.07818912 -0.12784475 0.06323879 0.086691625 -0.116203226 -0.16576284 0.12524958 0.12179079 -0.1709584 0.08396535 -0.010999057 -0.07464635 -0.016918156 -0.06851273 -0.05211082 0.1563655 0.15209371 -0.025803844 -0.008200123 0.14847238 0.09873072 0.11021666 0.12996797 -0.21197689 0.12308954 0.1449001 -0.1936488 -0.023587992 -0.08252866 -0.04269403 0.23968214 0.02383448 -0.19315413 -0.29057282 -0.06360246 -0.08717148 -0.07276708 0.06415353 0.22160819 -0.008416215 -0.014376867 -0.10612188 0.026604148 -0.105212785 0.12858547 -0.07149935 0.001704769 0.050452236 0.044707734 0.17713189 -0.0019243569 0.12239378 -0.029928166 0.18649605 0.10901137 0.09156728 0.026491575 -0.023716696 0.02359512 0.117218964 0.0044111223 -0.15552405 -0.18528298 0.03865555
21 0.023173554 0.06485356 0.24228962 -0.04006472 -0.118104205 -0.21984227 0.021067422 0.14661893 0.10270772 0.021393565 0.26582652 0.039438047 0.081158556 0.007840194 -0.0330569 -0.024794348 -0.055687003 0.15662788 -0.14397092 -0.05444102 0.14244464 0.011962577 0.06266067 -0.034447685 -0.065463044 0.047253784 -0.058711577 0.086106144 0.055804357 0.07690683 -0.22244471 0.12337973 0.07704592 -0.07658314 -0.10432982 -0.0074434793 0.21066247 -0.023693629 0.086556606 -0.17070508 -0.09650541 0.24276699 -0.11296283 -0.16412042 -0.092085294 -0.0549766 -0.12794274 -0.13668747 0.059362337 0.029967628 0.23598005 -0.011552252 -0.1043191 0.08437693 0.05657786 -0.0020381964 0.15373297 -0.04800281 -0.15798403 0.06590226 -0.09729929 -0.020272493 -0.10550848 -0.17564918 -0.0035293554 0.005387991 0.03472925 0.044442143 0.06868246 0.047844496 0.017077286 0.14120547 -0.14029792 -0.06270017 0.029746126 -0.029101625 0.13731351 -0.013741882 -0.041894067 0.0050771395 -0.054798115 -0.040869273 0.21775785 0.0336407 -0.0045751794 -0.022826323 0.08433461 -0.14811935 -0.079461604 0.10789312 -0.1130542 0.02375059 -0.0745977 0.0012403701 0.13005716 -0.059110172 -0.126003 -0.21585733 0.13804331 -0.034527864 -0.20086065 0.1081794 0.08165148 -0.0027087284 0.10188652 -0.06562102 0.022072064 -0.03877177 -0.020480564 -0.027342722 0.13884324 -0.010053323 -0.096969076 0.17114988 0.097364195 0.04698181 -0.013019404 0.06534694 0.060152624 0.09768335 0.059280235 -0.15865083 0.18395789 -0.1485438 0.094553165 -0.04039511 -0.16834581 -0.025232652
